{"gradients/spatial_edge_rnn.weight_hh":{"bins":[-0.045814789831638336,-0.044380031526088715,-0.042945269495248795,-0.04151051118969917,-0.04007574915885925,-0.03864099085330963,-0.03720622882246971,-0.03577147051692009,-0.03433670848608017,-0.03290195018053055,-0.031467191874980927,-0.030032429844141006,-0.028597671538591385,-0.027162911370396614,-0.025728151202201843,-0.024293391034007072,-0.0228586308658123,-0.02142387069761753,-0.01998911052942276,-0.01855435036122799,-0.01711959019303322,-0.015684831887483597,-0.014250071719288826,-0.012815311551094055,-0.011380551382899284,-0.009945791214704514,-0.008511031046509743,-0.0070762718096375465,-0.005641511641442776,-0.004206751473248005,-0.0027719917707145214,-0.0013372318353503942,9.752810001373291e-05,0.00153228803537786,0.0029670479707419872,0.004401807673275471,0.0058365678414702415,0.007271328009665012,0.008706087246537209,0.01014084741473198,0.01157560758292675,0.013010367751121521,0.014445127919316292,0.015879888087511063,0.017314646393060684,0.018749406561255455,0.020184166729450226,0.021618926897644997,0.023053687065839767,0.02448844723403454,0.02592320740222931,0.02735796757042408,0.02879272773861885,0.030227486044168472,0.03166224807500839,0.033097006380558014,0.034531764686107635,0.035966526716947556,0.03740128502249718,0.0388360470533371,0.04027080535888672,0.04170556738972664,0.04314032569527626,0.04457508772611618,0.0460098460316658],"_type":"histogram","values":[1,1,0,1,1,1,3,6,2,3,4,5,7,7,10,22,9,19,27,23,34,55,66,71,88,137,200,250,377,591,1270,5741,4294,1100,552,366,257,159,154,103,75,49,54,33,34,13,23,19,15,10,10,4,9,4,5,1,2,2,0,1,1,1,1,1]},"gradients/spatial_edge_rnn.bias_ih":{"values":[1,0,0,0,0,0,0,3,0,1,1,1,0,0,2,1,1,2,1,2,0,6,6,3,4,2,5,6,7,9,28,38,40,27,14,7,3,3,6,3,4,0,3,0,4,2,1,1,1,0,1,2,0,1,0,1,0,0,0,0,0,0,0,2],"bins":[-0.08849620074033737,-0.08572082966566086,-0.08294545114040375,-0.08017008006572723,-0.07739470154047012,-0.07461933046579361,-0.0718439519405365,-0.06906858086585999,-0.06629320234060287,-0.06351783126592636,-0.06074245646595955,-0.05796708166599274,-0.055191706866025925,-0.05241633206605911,-0.0496409572660923,-0.04686558246612549,-0.044090207666158676,-0.041314832866191864,-0.03853945806622505,-0.03576408326625824,-0.03298870846629143,-0.030213335528969765,-0.027437960729002953,-0.02466258592903614,-0.02188721112906933,-0.019111836329102516,-0.016336461529135704,-0.013561087660491467,-0.010785712860524654,-0.008010338060557842,-0.005234963726252317,-0.002459589159116149,0.00031578540802001953,0.003091159975156188,0.0058665345422923565,0.008641908876597881,0.011417283676564693,0.014192658476531506,0.016968032345175743,0.019743407145142555,0.022518781945109367,0.02529415674507618,0.02806953154504299,0.030844906345009804,0.03362027928233147,0.03639565408229828,0.03917102888226509,0.0419464036822319,0.044721778482198715,0.04749715328216553,0.05027252808213234,0.05304790288209915,0.055823277682065964,0.058598652482032776,0.06137402728199959,0.0641494020819664,0.06692477315664291,0.06970015168190002,0.07247552275657654,0.07525090128183365,0.07802627235651016,0.08080165088176727,0.08357702195644379,0.0863524004817009,0.08912777155637741],"_type":"histogram"},"gradients/temporal_edge_rnn.bias_ih":{"bins":[-1.010823369026184,-0.9859071373939514,-0.9609909057617188,-0.9360746741294861,-0.9111584424972534,-0.8862422704696655,-0.8613260388374329,-0.8364098072052002,-0.8114935755729675,-0.7865773439407349,-0.7616611123085022,-0.7367448806762695,-0.7118287086486816,-0.686912477016449,-0.6619962453842163,-0.6370800137519836,-0.612163782119751,-0.5872475504875183,-0.5623313188552856,-0.537415087223053,-0.5124988555908203,-0.48758265376091003,-0.46266645193099976,-0.4377502202987671,-0.4128339886665344,-0.38791775703430176,-0.3630015254020691,-0.3380853235721588,-0.31316909193992615,-0.2882528603076935,-0.2633366584777832,-0.23842042684555054,-0.2135041356086731,-0.18858790397644043,-0.16367168724536896,-0.13875547051429749,-0.11383923888206482,-0.08892301470041275,-0.06400679051876068,-0.03909056633710861,-0.014174342155456543,0.010741882026195526,0.035658106207847595,0.060574330389499664,0.08549055457115173,0.1104067787528038,0.13532300293445587,0.16023921966552734,0.18515545129776,0.21007168292999268,0.23498789966106415,0.2599041163921356,0.2848203480243683,0.30973657965660095,0.33465278148651123,0.3595690131187439,0.38448524475097656,0.40940147638320923,0.4343177080154419,0.4592339098453522,0.48415014147758484,0.5090663433074951,0.5339825749397278,0.5588988065719604,0.5838150382041931],"_type":"histogram","values":[1,0,0,0,0,0,0,0,0,0,0,0,0,0,0,0,0,0,0,0,0,1,0,0,0,0,0,0,0,0,1,0,2,2,1,2,4,2,5,35,151,21,7,4,6,1,1,0,4,1,0,1,0,0,0,0,0,0,0,0,1,0,1,1]},"best_val_loss":-4.871451314968951,"epoch_time_s":40.18507719039917,"gradients/spatial_edge_rnn.bias_hh":{"bins":[-0.08849620074033737,-0.08572082966566086,-0.08294545114040375,-0.08017008006572723,-0.07739470154047012,-0.07461933046579361,-0.0718439519405365,-0.06906858086585999,-0.06629320234060287,-0.06351783126592636,-0.06074245646595955,-0.05796708166599274,-0.055191706866025925,-0.05241633206605911,-0.0496409572660923,-0.04686558246612549,-0.044090207666158676,-0.041314832866191864,-0.03853945806622505,-0.03576408326625824,-0.03298870846629143,-0.030213335528969765,-0.027437960729002953,-0.02466258592903614,-0.02188721112906933,-0.019111836329102516,-0.016336461529135704,-0.013561087660491467,-0.010785712860524654,-0.008010338060557842,-0.005234963726252317,-0.002459589159116149,0.00031578540802001953,0.003091159975156188,0.0058665345422923565,0.008641908876597881,0.011417283676564693,0.014192658476531506,0.016968032345175743,0.019743407145142555,0.022518781945109367,0.02529415674507618,0.02806953154504299,0.030844906345009804,0.03362027928233147,0.03639565408229828,0.03917102888226509,0.0419464036822319,0.044721778482198715,0.04749715328216553,0.05027252808213234,0.05304790288209915,0.055823277682065964,0.058598652482032776,0.06137402728199959,0.0641494020819664,0.06692477315664291,0.06970015168190002,0.07247552275657654,0.07525090128183365,0.07802627235651016,0.08080165088176727,0.08357702195644379,0.0863524004817009,0.08912777155637741],"_type":"histogram","values":[1,0,0,0,0,0,0,3,0,1,1,1,0,0,2,1,1,2,1,2,0,6,6,3,4,2,5,6,7,9,28,38,40,27,14,7,3,3,6,3,4,0,3,0,4,2,1,1,1,0,1,2,0,1,0,1,0,0,0,0,0,0,0,2]},"train/nll":-6.244973266333864,"gradients/spatial_edge_enc.0.weight":{"bins":[-0.01488497108221054,-0.01451264787465334,-0.014140324667096138,-0.013768001459538937,-0.013395678251981735,-0.013023355044424534,-0.012651031836867332,-0.012278708629310131,-0.01190638542175293,-0.011534061282873154,-0.011161738075315952,-0.010789414867758751,-0.01041709166020155,-0.010044768452644348,-0.009672445245087147,-0.009300122037529945,-0.008927798829972744,-0.008555475622415543,-0.008183152414858341,-0.00781082920730114,-0.0074385059997439384,-0.00706618232652545,-0.006693859118968248,-0.006321535911411047,-0.005949212703853846,-0.005576889496296644,-0.005204566288739443,-0.0048322430811822414,-0.004459919407963753,-0.004087596200406551,-0.00371527299284935,-0.0033429497852921486,-0.002970626577734947,-0.002598303370177746,-0.0022259801626205444,-0.0018536567222326994,-0.001481333514675498,-0.0011090103071182966,-0.0007366869831457734,-0.0003643637173809111,7.959548383951187e-06,0.0003802828141488135,0.0007526060799136758,0.001124929403886199,0.0014972526114434004,0.0018695758190006018,0.002241899259388447,0.002614222466945648,0.0029865456745028496,0.003358868882060051,0.0037311920896172523,0.004103515297174454,0.004475838504731655,0.004848162177950144,0.005220485385507345,0.005592808593064547,0.005965131800621748,0.006337455008178949,0.006709778215736151,0.007082101423293352,0.007454425096511841,0.007826748304069042,0.008199071511626244,0.008571394719183445,0.008943717926740646],"_type":"histogram","values":[1,0,0,0,0,0,0,0,0,0,0,0,0,0,0,0,0,0,0,0,0,1,0,0,0,0,1,2,2,1,1,2,1,2,4,2,2,7,4,14,6,2,1,0,0,0,1,0,0,0,1,1,0,2,1,0,0,1,0,0,0,0,0,1]},"train/total":-4.677545851259901,"gradients/temporal_edge_rnn.bias_hh":{"bins":[-1.010823369026184,-0.9859071373939514,-0.9609909057617188,-0.9360746741294861,-0.9111584424972534,-0.8862422704696655,-0.8613260388374329,-0.8364098072052002,-0.8114935755729675,-0.7865773439407349,-0.7616611123085022,-0.7367448806762695,-0.7118287086486816,-0.686912477016449,-0.6619962453842163,-0.6370800137519836,-0.612163782119751,-0.5872475504875183,-0.5623313188552856,-0.537415087223053,-0.5124988555908203,-0.48758265376091003,-0.46266645193099976,-0.4377502202987671,-0.4128339886665344,-0.38791775703430176,-0.3630015254020691,-0.3380853235721588,-0.31316909193992615,-0.2882528603076935,-0.2633366584777832,-0.23842042684555054,-0.2135041356086731,-0.18858790397644043,-0.16367168724536896,-0.13875547051429749,-0.11383923888206482,-0.08892301470041275,-0.06400679051876068,-0.03909056633710861,-0.014174342155456543,0.010741882026195526,0.035658106207847595,0.060574330389499664,0.08549055457115173,0.1104067787528038,0.13532300293445587,0.16023921966552734,0.18515545129776,0.21007168292999268,0.23498789966106415,0.2599041163921356,0.2848203480243683,0.30973657965660095,0.33465278148651123,0.3595690131187439,0.38448524475097656,0.40940147638320923,0.4343177080154419,0.4592339098453522,0.48415014147758484,0.5090663433074951,0.5339825749397278,0.5588988065719604,0.5838150382041931],"_type":"histogram","values":[1,0,0,0,0,0,0,0,0,0,0,0,0,0,0,0,0,0,0,0,0,1,0,0,0,0,0,0,0,0,1,0,2,2,1,2,4,2,5,35,151,21,7,4,6,1,1,0,4,1,0,1,0,0,0,0,0,0,0,0,1,0,1,1]},"val/dist":8.04825810250787e-05,"train/w_mean":0.7717798570530456,"val/nll":-6.482238473041369,"eval/bl_linear_ade_px":30.110521987080574,"gradients/node_rnn.bias_hh":{"values":[1,0,0,0,0,0,0,0,0,0,1,0,0,0,0,0,0,0,0,0,0,0,0,0,0,0,1,0,0,1,0,0,0,1,0,0,1,2,1,2,0,20,50,122,22,10,7,4,4,1,0,0,1,1,0,0,1,0,1,0,0,0,0,1],"bins":[-6.123903274536133,-5.981773853302002,-5.839644908905029,-5.697515487670898,-5.555386066436768,-5.413257122039795,-5.271127700805664,-5.128998279571533,-4.9868693351745605,-4.84473991394043,-4.702610492706299,-4.560481548309326,-4.418352127075195,-4.2762227058410645,-4.134093761444092,-3.991964340209961,-3.849835157394409,-3.7077059745788574,-3.5655765533447266,-3.423447370529175,-3.281318187713623,-3.139188766479492,-2.9970595836639404,-2.8549304008483887,-2.712800979614258,-2.570671796798706,-2.4285426139831543,-2.2864134311676025,-2.1442840099334717,-2.00215482711792,-1.8600255250930786,-1.7178963422775269,-1.5757670402526855,-1.4336377382278442,-1.2915085554122925,-1.1493792533874512,-1.0072500705718994,-0.8651207685470581,-0.7229914665222168,-0.5808622241020203,-0.43873298168182373,-0.2966037392616272,-0.15447446703910828,-0.01234520971775055,0.12978404760360718,0.2719132900238037,0.41404256224632263,0.5561718344688416,0.6983010768890381,0.8404303193092346,0.9825595617294312,1.1246888637542725,1.2668180465698242,1.4089473485946655,1.5510766506195068,1.6932058334350586,1.8353351354599,1.9774644374847412,2.119593620300293,2.2617228031158447,2.4038522243499756,2.5459814071655273,2.688110589981079,2.83024001121521,2.9723691940307617],"_type":"histogram"},"epoch":2,"eval/best_ade_px":29.296035692095757,"val/total":-4.871451314968951,"_timestamp":1.7755442923440776e+09,"eval/improvement_vs_static_pct":-82.83207283250178,"gradients/attn_k.bias":{"bins":[-6.340190594755768e-10,-6.088616277821757e-10,-5.837041405776233e-10,-5.58546653373071e-10,-5.333892216796698e-10,-5.082317899862687e-10,-4.830743027817164e-10,-4.5791684333273963e-10,-4.327593838837629e-10,-4.0760192443478616e-10,-3.824444649858094e-10,-3.572870055368327e-10,-3.3212954608785594e-10,-3.069720866388792e-10,-2.8181462718990247e-10,-2.5665716774092573e-10,-2.31499708291949e-10,-2.0634224884297225e-10,-1.8118478939399552e-10,-1.5602732994501878e-10,-1.3086987049604204e-10,-1.057124110470653e-10,-8.055495159808856e-11,-5.5397492149111827e-11,-3.024003270013509e-11,-5.082573251158351e-12,2.0074886197818387e-11,4.5232345646795125e-11,7.038980509577186e-11,9.55472645447486e-11,1.2070472399372534e-10,1.4586218344270208e-10,1.7101964289167881e-10,1.9617710234065555e-10,2.213345617896323e-10,2.4649202123860903e-10,2.7164948068758576e-10,2.968069401365625e-10,3.2196439958553924e-10,3.47121859034516e-10,3.722793184834927e-10,3.9743677793246945e-10,4.225942373814462e-10,4.4775169683042293e-10,4.729091562793997e-10,4.980665879728008e-10,5.232240751773531e-10,5.483815623819055e-10,5.735389940753066e-10,5.986964257687077e-10,6.238539129732601e-10,6.490114001778124e-10,6.741688318712136e-10,6.993262635646147e-10,7.24483750769167e-10,7.496412379737194e-10,7.747986696671205e-10,7.999561013605216e-10,8.25113588565074e-10,8.502710757696263e-10,8.754285074630275e-10,9.005859391564286e-10,9.257434263609809e-10,9.509009135655333e-10,9.760583452589344e-10],"_type":"histogram","values":[1,1,0,0,0,1,0,0,0,0,1,0,1,0,1,1,0,1,1,0,0,2,0,1,1,1,0,1,0,0,1,2,0,1,3,2,0,0,0,1,0,1,0,0,0,0,0,1,1,1,0,0,0,0,0,1,0,0,0,0,1,0,0,1]},"batch/grad_norm":84.7546157836914,"batch/w_mean":0.7287001013755798,"gradients/temporal_edge_rnn.weight_hh":{"_type":"histogram","values":[1,0,0,0,0,1,1,0,0,1,0,1,1,1,0,4,1,3,2,2,4,3,7,3,11,9,18,37,37,66,113,273,977,13700,576,234,106,57,35,16,12,9,12,11,9,8,3,4,4,3,0,3,2,0,1,0,0,1,0,0,0,0,0,1],"bins":[-0.35849529504776,-0.34776097536087036,-0.3370266556739807,-0.3262923061847687,-0.31555798649787903,-0.3048236668109894,-0.29408934712409973,-0.2833549976348877,-0.27262067794799805,-0.2618863582611084,-0.25115203857421875,-0.2404177039861679,-0.22968338429927826,-0.21894904971122742,-0.20821473002433777,-0.19748039543628693,-0.18674607574939728,-0.17601175606250763,-0.1652774214744568,-0.15454310178756714,-0.1438087671995163,-0.13307444751262665,-0.1223401203751564,-0.11160579323768616,-0.10087146610021591,-0.09013713896274567,-0.07940281182527542,-0.06866848468780518,-0.05793416127562523,-0.047199834138154984,-0.03646551072597504,-0.02573118358850479,-0.014996856451034546,-0.004262530244886875,0.006471795961260796,0.01720612123608589,0.027940448373556137,0.03867477551102638,0.04940909892320633,0.060143426060676575,0.07087775319814682,0.08161208033561707,0.09234640747308731,0.10308073461055756,0.1138150542974472,0.12454938143491745,0.1352837085723877,0.14601804316043854,0.15675236284732819,0.16748668253421783,0.17822101712226868,0.18895533680915833,0.19968967139720917,0.21042399108409882,0.22115832567214966,0.2318926453590393,0.24262696504592896,0.2533612847328186,0.26409563422203064,0.2748299539089203,0.28556427359580994,0.2962985932826996,0.3070329427719116,0.31776726245880127,0.3285015821456909]},"batch/dist":6.508546357508749e-05,"gradients/spatial_edge_rnn.weight_ih":{"values":[1,1,1,2,0,0,2,3,3,5,7,2,4,3,8,5,8,4,13,8,8,22,43,32,26,52,63,90,125,284,881,5291,534,225,110,63,35,57,39,17,13,16,18,13,6,7,5,4,6,6,5,1,3,2,0,0,0,0,2,3,2,0,2,1],"bins":[-0.06216084212064743,-0.06017695739865303,-0.05819307267665863,-0.05620918795466423,-0.05422530323266983,-0.05224141851067543,-0.05025753378868103,-0.04827364906668663,-0.04628976434469223,-0.04430587962269783,-0.04232199490070343,-0.04033811017870903,-0.03835422545671463,-0.03637034073472023,-0.03438645601272583,-0.03240257129073143,-0.03041868656873703,-0.02843480184674263,-0.02645091712474823,-0.02446703240275383,-0.02248314768075943,-0.02049926295876503,-0.01851537823677063,-0.01653149351477623,-0.01454760879278183,-0.01256372407078743,-0.01057983934879303,-0.00859595462679863,-0.00661206990480423,-0.00462818518280983,-0.0026443004608154297,-0.0006604157388210297,0.0013234764337539673,0.0033073611557483673,0.005291245877742767,0.007275130599737167,0.009259015321731567,0.011242900043725967,0.013226784765720367,0.015210669487714767,0.017194554209709167,0.019178438931703568,0.021162323653697968,0.023146208375692368,0.025130093097686768,0.027113977819681168,0.029097862541675568,0.031081747263669968,0.03306563198566437,0.03504951670765877,0.03703340142965317,0.03901728615164757,0.04100117087364197,0.04298505559563637,0.04496894031763077,0.04695282503962517,0.04893670976161957,0.05092059448361397,0.05290447920560837,0.05488836392760277,0.05687224864959717,0.05885613337159157,0.06084001809358597,0.06282390654087067,0.06480778753757477],"_type":"histogram"},"gradients/output_linear.bias":{"_type":"histogram","values":[2,1,0,0,0,0,0,0,0,0,0,0,0,0,0,0,0,0,0,0,0,0,0,0,0,0,0,0,0,1,0,0,0,0,0,0,0,0,0,0,0,0,0,0,0,0,0,0,0,0,0,0,0,0,0,0,0,0,0,0,0,0,0,1],"bins":[-0.015026256442070007,0.2822284698486328,0.579483151435852,0.8767378926277161,1.17399263381958,1.4712473154067993,1.7685019969940186,2.0657567977905273,2.363011360168457,2.660266160964966,2.9575209617614746,3.2547755241394043,3.552030324935913,3.8492848873138428,4.146539688110352,4.443794250488281,4.741049289703369,5.038303852081299,5.3355584144592285,5.632813453674316,5.930068016052246,6.227322578430176,6.524577617645264,6.821832180023193,7.119086742401123,7.416341304779053,7.713596343994141,8.01085090637207,8.30810546875,8.60536003112793,8.902615547180176,9.199870109558105,9.497124671936035,9.794379234313965,10.091633796691895,10.388888359069824,10.68614387512207,10.9833984375,11.28065299987793,11.57790756225586,11.875162124633789,12.172416687011719,12.469672203063965,12.766926765441895,13.064181327819824,13.361435890197754,13.658690452575684,13.955945014953613,14.25320053100586,14.550455093383789,14.847709655761719,15.144964218139648,15.442218780517578,15.739473342895508,16.036727905273438,16.333982467651367,16.631237030029297,16.928491592407227,17.22574806213379,17.52300262451172,17.82025718688965,18.117511749267578,18.414766311645508,18.712020874023438,19.009275436401367]},"gradients/node_enc.0.bias":{"values":[1,0,0,0,0,0,0,0,0,1,1,0,0,0,0,1,0,2,0,0,0,0,0,1,2,0,1,0,0,0,0,0,0,0,0,1,7,0,0,1,0,0,0,1,0,0,0,0,1,0,0,1,0,2,0,0,0,0,2,2,1,1,1,1],"bins":[-4.21662712097168,-4.101582050323486,-3.986537218093872,-3.871492385864258,-3.7564475536346436,-3.64140248298645,-3.526357650756836,-3.4113128185272217,-3.2962679862976074,-3.181222915649414,-3.0661780834198,-2.9511332511901855,-2.836088180541992,-2.721043348312378,-2.6059985160827637,-2.4909534454345703,-2.375908613204956,-2.260863780975342,-2.1458187103271484,-2.030773878097534,-1.91572904586792,-1.8006840944290161,-1.6856391429901123,-1.570594310760498,-1.4555493593215942,-1.3405044078826904,-1.2254595756530762,-1.1104146242141724,-0.9953697323799133,-0.8803248405456543,-0.7652798891067505,-0.6502349972724915,-0.5351898670196533,-0.4201449751853943,-0.30510005354881287,-0.19005514681339264,-0.07501024007797241,0.040034666657447815,0.15507957339286804,0.27012449502944946,0.3851693868637085,0.5002142786979675,0.6152591705322266,0.7303041219711304,0.8453490138053894,0.9603939056396484,1.0754388570785522,1.1904836893081665,1.3055286407470703,1.4205735921859741,1.5356184244155884,1.6506633758544922,1.7657082080841064,1.8807531595230103,1.995798110961914,2.1108429431915283,2.2258877754211426,2.340932846069336,2.45597767829895,2.5710225105285645,2.686067581176758,2.801112413406372,2.9161572456359863,3.0312023162841797,3.146247148513794],"_type":"histogram"},"gradients/node_rnn.weight_ih":{"_type":"histogram","values":[1,0,0,0,0,1,0,0,0,0,1,2,0,1,1,3,0,1,0,3,1,4,3,3,0,4,1,5,5,3,5,7,7,11,10,11,18,16,29,39,73,261,3751,11236,473,171,82,41,24,17,16,11,7,8,5,1,5,1,3,0,0,1,0,1],"bins":[-6.72794771194458,-6.571494102478027,-6.415040493011475,-6.258586883544922,-6.102133274078369,-5.945679664611816,-5.789226055145264,-5.632772445678711,-5.476318836212158,-5.3198652267456055,-5.163411617279053,-5.0069580078125,-4.850504398345947,-4.6940507888793945,-4.537597179412842,-4.381143569946289,-4.224689960479736,-4.068236351013184,-3.911782741546631,-3.755329132080078,-3.5988755226135254,-3.4424219131469727,-3.28596830368042,-3.129514694213867,-2.9730610847473145,-2.8166074752807617,-2.660153865814209,-2.5037002563476562,-2.3472466468811035,-2.190793037414551,-2.034339427947998,-1.8778858184814453,-1.7214324474334717,-1.564978837966919,-1.4085252285003662,-1.2520716190338135,-1.0956180095672607,-0.939164400100708,-0.7827107906341553,-0.6262571811676025,-0.4698035717010498,-0.31334996223449707,-0.15689635276794434,-0.00044274330139160156,0.15601086616516113,0.31246447563171387,0.4689180850982666,0.6253716945648193,0.7818253040313721,0.9382789134979248,1.0947325229644775,1.2511861324310303,1.407639741897583,1.5640933513641357,1.7205469608306885,1.8770005702972412,2.033454179763794,2.1899077892303467,2.3463613986968994,2.502815008163452,2.659268617630005,2.8157222270965576,2.9721758365631104,3.128629446029663,3.285083055496216]},"gradients/temporal_edge_enc.0.bias":{"bins":[-0.8718423843383789,-0.8199654817581177,-0.7680886387825012,-0.71621173620224,-0.6643348932266235,-0.6124579906463623,-0.5605810880661011,-0.5087042450904846,-0.4568273425102234,-0.40495046973228455,-0.3530735969543457,-0.3011966943740845,-0.24931982159614563,-0.1974429488182068,-0.14556606113910675,-0.09368918091058731,-0.04181230068206787,0.010064579546451569,0.06194145977497101,0.11381834000349045,0.1656952202320099,0.21757209300994873,0.26944899559020996,0.3213258683681488,0.37320274114608765,0.4250796139240265,0.47695648670196533,0.5288333892822266,0.5807102918624878,0.6325871348381042,0.6844640374183655,0.7363408803939819,0.7882177829742432,0.8400946855545044,0.8919715285301208,0.9438484311103821,0.9957252740859985,1.0476021766662598,1.099479079246521,1.1513559818267822,1.203232765197754,1.2551096677780151,1.3069865703582764,1.3588634729385376,1.4107403755187988,1.46261727809906,1.5144940614700317,1.566370964050293,1.6182478666305542,1.6701247692108154,1.7220016717910767,1.7738784551620483,1.8257553577423096,1.8776322603225708,1.929509162902832,1.9813860654830933,2.0332629680633545,2.085139751434326,2.137016773223877,2.1888935565948486,2.2407703399658203,2.292647361755371,2.3445241451263428,2.3964011669158936,2.4482779502868652],"_type":"histogram","values":[1,0,0,0,0,0,0,0,0,0,2,1,0,2,0,1,15,1,2,1,0,1,0,1,1,0,0,0,0,0,0,0,0,0,0,0,0,0,0,0,0,0,2,0,0,0,0,0,0,0,0,0,0,0,0,0,0,0,0,0,0,0,0,1]},"gradients/attn_q.weight":{"bins":[-0.0005793707096017897,-0.0005608361097984016,-0.0005423015682026744,-0.0005237669683992863,-0.0005052323685958982,-0.00048669776879251003,-0.00046816319809295237,-0.0004496286273933947,-0.0004310940275900066,-0.00041255942778661847,-0.0003940248570870608,-0.00037549028638750315,-0.00035695568658411503,-0.0003384210867807269,-0.00031988651608116925,-0.0003013519453816116,-0.00028281734557822347,-0.00026428274577483535,-0.0002457481750752777,-0.0002272135898238048,-0.0002086790045723319,-0.00019014441932085901,-0.00017160983406938612,-0.00015307524881791323,-0.00013454066356644034,-0.00011600607831496745,-9.747149306349456e-05,-7.893690781202167e-05,-6.040232256054878e-05,-4.186773730907589e-05,-2.3333152057603e-05,-4.798566806130111e-06,1.373601844534278e-05,3.227060369681567e-05,5.080518894828856e-05,6.933977419976145e-05,8.787435945123434e-05,0.00010640894470270723,0.00012494352995418012,0.000143478115205653,0.0001620127004571259,0.0001805472857085988,0.00019908187096007168,0.00021761645621154457,0.00023615104146301746,0.0002546856412664056,0.00027322021196596324,0.0002917547826655209,0.000310289382468909,0.00032882398227229714,0.0003473585529718548,0.00036589312367141247,0.0003844277234748006,0.0004029623232781887,0.00042149689397774637,0.00044003146467730403,0.00045856606448069215,0.00047710066428408027,0.0004956352058798075,0.0005141698056831956,0.0005327044054865837,0.0005512390052899718,0.00056977360509336,0.0005883081466890872,0.0006068427464924753],"_type":"histogram","values":[1,1,1,0,0,0,0,2,2,1,6,1,4,7,5,11,9,15,25,27,31,43,42,37,53,57,80,95,121,125,164,195,136,106,145,102,73,54,46,42,41,33,23,17,17,9,6,10,5,5,5,0,1,2,3,0,1,1,2,1,0,0,0,1]},"gradients/attn_k.weight":{"bins":[-0.0006738025113008916,-0.0006539952009916306,-0.0006341878906823695,-0.0006143805803731084,-0.0005945732118561864,-0.0005747659015469253,-0.0005549585912376642,-0.0005351512809284031,-0.0005153439706191421,-0.000495536660309881,-0.0004757293500006199,-0.00045592201058752835,-0.00043611470027826726,-0.0004163073899690062,-0.00039650005055591464,-0.00037669274024665356,-0.0003568854299373925,-0.0003370781196281314,-0.0003172708093188703,-0.00029746346990577877,-0.0002776561595965177,-0.0002578488492872566,-0.0002380415244260803,-0.00021823419956490397,-0.0001984268892556429,-0.0001786195789463818,-0.0001588122540852055,-0.00013900492922402918,-0.0001191976189147681,-9.93903013295494e-05,-7.95829837443307e-05,-5.9775666159112006e-05,-3.996840678155422e-05,-2.0161089196335524e-05,-3.5377161111682653e-07,1.945354597410187e-05,3.926086355932057e-05,5.906818114453927e-05,7.887549872975796e-05,9.868281631497666e-05,0.00011849013390019536,0.00013829744420945644,0.00015810476907063276,0.00017791209393180907,0.00019771940424107015,0.00021752671455033123,0.00023733403941150755,0.00025714136427268386,0.00027694867458194494,0.000296755984891206,0.0003165632952004671,0.00033637063461355865,0.00035617794492281973,0.0003759852552320808,0.00039579259464517236,0.00041559990495443344,0.0004354072152636945,0.0004552145255729556,0.0004750218358822167,0.0004948291461914778,0.0005146365147083998,0.0005344438250176609,0.0005542511353269219,0.000574058445636183,0.0005938657559454441],"_type":"histogram","values":[1,0,0,0,0,0,0,1,0,1,1,0,3,1,1,1,2,2,0,2,5,2,14,8,15,17,27,40,45,51,88,145,216,340,324,196,145,92,72,43,43,31,19,18,5,6,3,4,2,2,4,1,0,2,2,0,0,0,1,1,0,0,1,2]},"gradients/output_linear.weight":{"values":[2,2,0,0,1,0,2,1,0,0,1,0,2,2,0,1,1,5,1,2,4,4,4,3,5,4,0,3,3,4,37,159,2,2,4,3,2,4,0,2,2,2,6,2,10,3,1,0,1,0,0,1,0,2,2,0,2,3,1,2,4,2,1,1],"bins":[-17.00482940673828,-16.459035873413086,-15.913241386413574,-15.367446899414062,-14.821653366088867,-14.275858879089355,-13.73006534576416,-13.184270858764648,-12.638477325439453,-12.092682838439941,-11.54688835144043,-11.001094818115234,-10.455300331115723,-9.909506797790527,-9.363712310791016,-8.81791877746582,-8.272124290466309,-7.726330280303955,-7.180536270141602,-6.634742259979248,-6.0889482498168945,-5.543153762817383,-4.997359752655029,-4.451565742492676,-3.9057717323303223,-3.3599777221679688,-2.8141837120056152,-2.2683894634246826,-1.722595453262329,-1.1768014430999756,-0.6310073137283325,-0.08521324396133423,0.46058082580566406,1.0063748359680176,1.5521689653396606,2.0979630947113037,2.6437571048736572,3.1895511150360107,3.7353453636169434,4.281139373779297,4.82693338394165,5.372727394104004,5.918521404266357,6.464315414428711,7.010109901428223,7.555903911590576,8.10169792175293,8.647491455078125,9.193285942077637,9.739080429077148,10.284873962402344,10.830668449401855,11.37646198272705,11.922256469726562,12.468050003051758,13.01384449005127,13.559638977050781,14.105432510375977,14.651226997375488,15.197020530700684,15.742815017700195,16.28860855102539,16.834402084350586,17.380197525024414,17.92599105834961],"_type":"histogram"},"_runtime":123.565252986,"gradients/node_rnn.weight_hh":{"values":[1,1,4,2,2,1,3,2,1,3,6,4,3,3,2,2,2,2,4,5,4,12,13,17,17,17,27,34,48,117,222,781,11495,2436,523,238,105,32,29,40,21,19,17,12,9,6,10,5,3,1,3,4,1,1,2,1,2,2,0,1,0,0,2,2],"bins":[-5.781238555908203,-5.605157852172852,-5.4290771484375,-5.252996921539307,-5.076916217803955,-4.9008355140686035,-4.72475528717041,-4.548674583435059,-4.372593879699707,-4.1965131759643555,-4.020432472229004,-3.8443522453308105,-3.668271541595459,-3.4921908378601074,-3.316110372543335,-3.1400299072265625,-2.963949203491211,-2.7878684997558594,-2.611788034439087,-2.4357075691223145,-2.259626865386963,-2.0835461616516113,-1.9074656963348389,-1.7313851118087769,-1.5553045272827148,-1.3792239427566528,-1.2031433582305908,-1.0270627737045288,-0.8509821891784668,-0.6749016046524048,-0.4988210201263428,-0.32274043560028076,-0.14666032791137695,0.02942025661468506,0.20550084114074707,0.3815814256668091,0.5576620101928711,0.7337425947189331,0.9098231792449951,1.0859037637710571,1.2619843482971191,1.4380649328231812,1.6141455173492432,1.7902261018753052,1.9663066864013672,2.1423873901367188,2.318467855453491,2.4945483207702637,2.6706290245056152,2.846709728240967,3.0227901935577393,3.1988706588745117,3.3749513626098633,3.551032066345215,3.7271125316619873,3.9031929969787598,4.079273700714111,4.255354404449463,4.431434631347656,4.607515335083008,4.783596038818359,4.959676742553711,5.1357574462890625,5.311837673187256,5.487918376922607],"_type":"histogram"},"_step":1368,"best_ade_px":29.296035692095757,"eval/fde_px":53.94368916749954,"eval/bl_static_ade_px":16.023466363549232,"batch/nll":-6.585979461669922,"gradients/node_enc.0.weight":{"bins":[-2.137711524963379,-2.074692964553833,-2.011674642562866,-1.9486560821533203,-1.8856375217437744,-1.822619080543518,-1.7596005201339722,-1.6965820789337158,-1.63356351852417,-1.5705450773239136,-1.5075266361236572,-1.4445080757141113,-1.381489634513855,-1.318471074104309,-1.2554526329040527,-1.1924340724945068,-1.1294156312942505,-1.0663971900939941,-1.0033786296844482,-0.9403601288795471,-0.877341628074646,-0.8143231868743896,-0.7513046860694885,-0.6882861852645874,-0.6252676844596863,-0.5622491836547852,-0.49923068284988403,-0.4362122118473053,-0.3731937110424042,-0.31017521023750305,-0.24715672433376312,-0.1841382384300232,-0.12111973762512207,-0.058101244270801544,0.004917249083518982,0.06793574243783951,0.13095423579216003,0.19397273659706116,0.2569912075996399,0.320009708404541,0.38302820920944214,0.44604671001434326,0.5090652108192444,0.5720837116241455,0.6351021528244019,0.698120653629303,0.7611391544342041,0.8241576552391052,0.8871761560440063,0.9501946568489075,1.0132131576538086,1.076231598854065,1.1392501592636108,1.2022686004638672,1.265287160873413,1.3283056020736694,1.3913240432739258,1.4543426036834717,1.517361044883728,1.580379605293274,1.6433980464935303,1.7064166069030762,1.7694350481033325,1.8324536085128784,1.8954720497131348],"_type":"histogram","values":[1,0,0,0,0,0,1,0,1,2,0,0,0,0,1,0,1,0,0,0,0,0,2,3,0,1,1,1,1,3,2,0,1,14,0,2,0,1,0,3,0,0,0,0,1,1,2,1,1,2,1,0,1,1,1,2,2,2,1,1,0,0,0,2]},"gradients/spatial_edge_enc.0.bias":{"bins":[-0.022545823827385902,-0.021537281572818756,-0.02052873931825161,-0.019520197063684464,-0.018511654809117317,-0.01750311255455017,-0.016494570299983025,-0.015486028045415878,-0.014477485790848732,-0.013468943536281586,-0.01246040128171444,-0.011451859027147293,-0.010443316772580147,-0.009434774518013,-0.008426232263445854,-0.007417690008878708,-0.006409147754311562,-0.005400605499744415,-0.004392063245177269,-0.0033835209906101227,-0.0023749787360429764,-0.00136643648147583,-0.0003578942269086838,0.0006506480276584625,0.0016591902822256088,0.002667732536792755,0.0036762747913599014,0.004684817045927048,0.005693359300494194,0.00670190155506134,0.007710443809628487,0.008718986064195633,0.00972752645611763,0.010736068710684776,0.011744610965251923,0.012753153219819069,0.013761695474386215,0.014770237728953362,0.015778779983520508,0.016787322238087654,0.0177958644926548,0.018804406747221947,0.019812949001789093,0.02082149125635624,0.021830033510923386,0.022838575765490532,0.023847118020057678,0.024855660274624825,0.02586420252919197,0.026872744783759117,0.027881287038326263,0.02888982929289341,0.029898371547460556,0.030906913802027702,0.03191545605659485,0.032923996448516846,0.03393254056572914,0.03494108468294144,0.035949625074863434,0.03695816546678543,0.037966709583997726,0.03897525370121002,0.03998379409313202,0.040992334485054016,0.04200087860226631],"_type":"histogram","values":[1,0,0,0,0,1,1,0,0,1,0,0,0,3,0,2,1,1,0,1,0,2,7,1,2,0,1,1,0,0,0,1,0,0,0,0,0,0,0,0,0,0,0,0,0,0,1,0,0,2,0,0,0,0,0,0,0,0,1,0,0,0,0,1]},"_wandb":{"runtime":123},"gradients/attn_q.bias":{"bins":[-0.0012208155822008848,-0.0011802669614553452,-0.0011397182242944837,-0.001099169603548944,-0.0010586209828034043,-0.0010180723620578647,-0.0009775236248970032,-0.0009369750041514635,-0.0008964263834059238,-0.0008558777044527233,-0.0008153290254995227,-0.000774780404753983,-0.0007342317258007824,-0.0006936831050552428,-0.0006531344261020422,-0.0006125858053565025,-0.000572037126403302,-0.0005314884474501014,-0.0004909398267045617,-0.0004503911768551916,-0.00040984252700582147,-0.0003692938480526209,-0.00032874519820325077,-0.00028819654835388064,-0.0002476478985045105,-0.0002070992486551404,-0.00016655059880577028,-0.00012600193440448493,-8.54532845551148e-05,-4.490463106776588e-05,-4.355977580416948e-06,3.619267590693198e-05,7.674132939428091e-05,0.00011728997924365103,0.00015783862909302115,0.0001983872934943065,0.00023893594334367663,0.000279484607744962,0.0003200332575943321,0.0003605819074437022,0.00040113055729307234,0.00044167920714244246,0.0004822278569918126,0.0005227765068411827,0.0005633251857943833,0.000603873806539923,0.0006444224854931235,0.0006849711062386632,0.0007255197851918638,0.0007660684641450644,0.000806617084890604,0.0008471657638438046,0.0008877143845893443,0.0009282630635425448,0.0009688116842880845,0.0010093603050336242,0.0010499090421944857,0.0010904576629400253,0.001131006283685565,0.0011715550208464265,0.0012121036415919662,0.0012526522623375058,0.0012932008830830455,0.001333749620243907,0.0013742982409894466],"_type":"histogram","values":[1,0,0,0,0,0,1,0,1,0,0,2,2,3,2,0,0,3,1,0,1,1,1,0,0,0,0,0,0,2,0,0,0,0,0,1,1,0,0,0,0,0,1,1,1,1,0,2,1,0,0,0,0,0,1,0,0,0,0,0,0,0,0,1]},"lr":1e-05,"eval/ade_px":29.296035692095757,"gradients/edge_attn_enc.0.bias":{"values":[1,0,0,0,0,0,0,0,0,0,0,0,0,0,0,2,0,0,0,0,0,0,1,0,1,0,1,0,0,0,0,17,0,1,0,0,0,2,0,0,1,2,0,0,0,0,0,0,0,1,0,0,0,0,1,0,0,0,0,0,0,0,0,1],"bins":[-1.2288442850112915,-1.1900094747543335,-1.151174783706665,-1.112339973449707,-1.0735052824020386,-1.0346704721450806,-0.9958357214927673,-0.9570009708404541,-0.9181662201881409,-0.8793314695358276,-0.8404967188835144,-0.8016619682312012,-0.7628271579742432,-0.7239924073219299,-0.6851576566696167,-0.6463229060173035,-0.6074881553649902,-0.568653404712677,-0.5298186540603638,-0.49098387360572815,-0.4521491229534149,-0.4133143723011017,-0.37447959184646606,-0.33564484119415283,-0.2968100905418396,-0.25797533988952637,-0.21914057433605194,-0.18030580878257751,-0.14147105813026428,-0.10263630002737045,-0.06380154192447662,-0.024966783821582794,0.013868093490600586,0.052702851593494415,0.09153760969638824,0.13037237524986267,0.1692071259021759,0.20804187655448914,0.24687664210796356,0.285711407661438,0.3245461583137512,0.36338090896606445,0.4022156596183777,0.4410504400730133,0.47988519072532654,0.5187199711799622,0.5575547218322754,0.5963894724845886,0.6352242231369019,0.6740589737892151,0.7128937244415283,0.7517284750938416,0.7905632257461548,0.8293980360031128,0.868232786655426,0.9070675373077393,0.9459022879600525,0.9847370386123657,1.0235718488693237,1.0624065399169922,1.1012413501739502,1.1400760412216187,1.1789108514785767,1.2177455425262451,1.2565803527832031],"_type":"histogram"},"batch/loss":-4.627042293548584,"best_epoch":2,"gradients/node_rnn.bias_ih":{"values":[1,0,0,0,0,0,0,0,0,0,1,0,0,0,0,0,0,0,0,0,0,0,0,0,0,0,1,0,0,1,0,0,0,1,0,0,1,2,1,2,0,20,50,122,22,10,7,4,4,1,0,0,1,1,0,0,1,0,1,0,0,0,0,1],"bins":[-6.123903274536133,-5.981773853302002,-5.839644908905029,-5.697515487670898,-5.555386066436768,-5.413257122039795,-5.271127700805664,-5.128998279571533,-4.9868693351745605,-4.84473991394043,-4.702610492706299,-4.560481548309326,-4.418352127075195,-4.2762227058410645,-4.134093761444092,-3.991964340209961,-3.849835157394409,-3.7077059745788574,-3.5655765533447266,-3.423447370529175,-3.281318187713623,-3.139188766479492,-2.9970595836639404,-2.8549304008483887,-2.712800979614258,-2.570671796798706,-2.4285426139831543,-2.2864134311676025,-2.1442840099334717,-2.00215482711792,-1.8600255250930786,-1.7178963422775269,-1.5757670402526855,-1.4336377382278442,-1.2915085554122925,-1.1493792533874512,-1.0072500705718994,-0.8651207685470581,-0.7229914665222168,-0.5808622241020203,-0.43873298168182373,-0.2966037392616272,-0.15447446703910828,-0.01234520971775055,0.12978404760360718,0.2719132900238037,0.41404256224632263,0.5561718344688416,0.6983010768890381,0.8404303193092346,0.9825595617294312,1.1246888637542725,1.2668180465698242,1.4089473485946655,1.5510766506195068,1.6932058334350586,1.8353351354599,1.9774644374847412,2.119593620300293,2.2617228031158447,2.4038522243499756,2.5459814071655273,2.688110589981079,2.83024001121521,2.9723691940307617],"_type":"histogram"},"gradients/temporal_edge_enc.0.weight":{"values":[1,0,0,0,0,0,0,0,0,0,0,0,0,1,1,1,2,2,1,4,30,5,4,2,0,1,2,1,2,0,0,0,0,0,0,0,1,0,0,1,0,0,0,0,1,0,0,0,0,0,0,0,0,0,0,0,0,0,0,0,0,0,0,1],"bins":[-0.004082874394953251,-0.0038881590589880943,-0.003693443490192294,-0.0034987281542271376,-0.003304012818261981,-0.003109297249466181,-0.0029145819135010242,-0.0027198665775358677,-0.002525151241570711,-0.002330435672774911,-0.0021357203368097544,-0.001941004884429276,-0.0017462894320487976,-0.001551574096083641,-0.0013568586437031627,-0.0011621433077380061,-0.0009674278553575277,-0.0007727124611847103,-0.0005779970670118928,-0.0003832816146314144,-0.00018856622045859694,6.149188266135752e-06,0.00020086459699086845,0.0003955800202675164,0.0005902954144403338,0.0007850108086131513,0.0009797262027859688,0.0011744416551664472,0.0013691571075469255,0.001563872443512082,0.0017585878958925605,0.001953303348273039,0.0021480186842381954,0.002342734020203352,0.002537449588999152,0.0027321649249643087,0.0029268802609294653,0.0031215958297252655,0.003316311165690422,0.0035110265016555786,0.003705741837620735,0.0039004574064165354,0.004095172975212336,0.004289888311177492,0.004484603647142649,0.004679318983107805,0.004874034319072962,0.005068749655038118,0.005263465456664562,0.005458180792629719,0.005652896128594875,0.005847611464560032,0.0060423268005251884,0.006237042136490345,0.0064317574724555016,0.006626473274081945,0.006821188610047102,0.0070159039460122585,0.007210619281977415,0.007405334617942572,0.007600049953907728,0.007794765755534172,0.007989481091499329,0.008184196427464485,0.008378911763429642],"_type":"histogram"},"train/dist":9.26503334595876e-05,"gradients/edge_attn_enc.0.weight":{"_type":"histogram","values":[1,0,1,0,1,0,0,2,1,0,4,2,3,1,4,5,9,4,6,8,14,13,13,27,32,37,51,73,93,131,176,253,2381,185,130,118,61,57,46,29,17,18,13,22,8,11,4,4,3,6,2,2,3,3,0,2,1,1,1,0,1,1,0,1],"bins":[-0.6785378456115723,-0.6574245691299438,-0.6363112926483154,-0.615198016166687,-0.5940847396850586,-0.5729714632034302,-0.5518582463264465,-0.5307449698448181,-0.5096316933631897,-0.4885184168815613,-0.46740514039993286,-0.44629186391830444,-0.425178587436676,-0.4040653109550476,-0.3829520642757416,-0.36183878779411316,-0.34072551131248474,-0.3196122348308563,-0.2984989583492279,-0.2773857116699219,-0.25627243518829346,-0.23515915870666504,-0.21404588222503662,-0.1929326206445694,-0.17181934416294098,-0.15070606768131256,-0.12959280610084534,-0.10847952961921692,-0.0873662605881691,-0.06625299155712128,-0.04513971880078316,-0.024026447907090187,-0.002913177013397217,0.018200093880295753,0.039313364773988724,0.06042663753032684,0.08153990656137466,0.10265317559242249,0.1237664520740509,0.14487971365451813,0.16599299013614655,0.18710626661777496,0.2082195281982422,0.2293328046798706,0.250446081161499,0.27155935764312744,0.29267260432243347,0.3137858808040619,0.3348991572856903,0.3560124337673187,0.37712571024894714,0.3982389569282532,0.4193522334098816,0.44046550989151,0.4615787863731384,0.48269206285476685,0.5038053393363953,0.5249186158180237,0.5460318922996521,0.5671451091766357,0.5882583856582642,0.6093716621398926,0.630484938621521,0.6515982151031494,0.6727114915847778]},"gradients/temporal_edge_rnn.weight_ih":{"bins":[-0.6138689517974854,-0.5987363457679749,-0.5836037397384644,-0.5684711337089539,-0.5533385276794434,-0.5382059216499329,-0.5230733156204224,-0.5079407095909119,-0.49280813336372375,-0.47767552733421326,-0.46254292130470276,-0.44741031527519226,-0.43227773904800415,-0.41714513301849365,-0.40201252698898315,-0.38687992095947266,-0.37174731492996216,-0.35661470890045166,-0.34148210287094116,-0.32634949684143066,-0.31121689081192017,-0.29608431458473206,-0.28095170855522156,-0.26581910252571106,-0.25068649649620056,-0.23555389046669006,-0.22042128443717957,-0.20528869330883026,-0.19015608727931976,-0.17502348124980927,-0.15989089012145996,-0.14475828409194946,-0.12962570786476135,-0.11449310183525085,-0.09936050325632095,-0.08422790467739105,-0.06909529864788055,-0.053962696343660355,-0.038830094039440155,-0.023697491735219955,-0.008564889430999756,0.006567712873220444,0.021700315177440643,0.03683291748166084,0.05196551978588104,0.06709812581539154,0.08223072439432144,0.09736332297325134,0.11249592900276184,0.12762853503227234,0.14276114106178284,0.15789373219013214,0.17302633821964264,0.18815894424915314,0.20329153537750244,0.21842414140701294,0.23355674743652344,0.24868935346603394,0.26382195949554443,0.27895456552505493,0.29408717155456543,0.30921974778175354,0.32435235381126404,0.33948495984077454,0.35461756587028503],"_type":"histogram","values":[1,0,0,0,1,0,1,0,2,0,0,0,1,0,1,0,0,0,1,0,1,1,0,1,2,3,0,1,2,0,3,3,4,13,13,16,27,45,56,290,7163,250,105,62,29,17,15,18,10,6,1,3,2,2,2,2,3,2,3,2,3,1,1,1]}}