{"gradients/attn_q.weight":{"bins":[-2.8346204999252222e-05,-2.7405998480389826e-05,-2.6465790142538026e-05,-2.552558362367563e-05,-2.458537528582383e-05,-2.3645168766961433e-05,-2.2704960429109633e-05,-2.1764753910247236e-05,-2.082454739138484e-05,-1.988433905353304e-05,-1.8944132534670644e-05,-1.8003924196818843e-05,-1.7063717677956447e-05,-1.6123509340104647e-05,-1.518330282124225e-05,-1.4243095392885152e-05,-1.3302887964528054e-05,-1.2362680536170956e-05,-1.1422473107813857e-05,-1.048226567945676e-05,-9.542058251099661e-06,-8.601851732237265e-06,-7.661644303880166e-06,-6.721436875523068e-06,-5.78122944716597e-06,-4.8410220188088715e-06,-3.900814590451773e-06,-2.960607616842026e-06,-2.0204001884849276e-06,-1.0801928738146671e-06,-1.3998555914440658e-07,8.00221755525854e-07,1.740427251206711e-06,2.680634679563809e-06,3.620841880547232e-06,4.561049081530655e-06,5.501256509887753e-06,6.441463938244851e-06,7.381670911854599e-06,8.321878340211697e-06,9.262085768568795e-06,1.0202293196925893e-05,1.1142500625282992e-05,1.208270805364009e-05,1.3022914572502486e-05,1.3963122000859585e-05,1.4903329429216683e-05,1.5843537767068483e-05,1.678374428593088e-05,1.7723950804793276e-05,1.8664159142645076e-05,1.9604365661507472e-05,2.0544573999359272e-05,2.148478051822167e-05,2.242498885607347e-05,2.3365195374935865e-05,2.4305401893798262e-05,2.5245610231650062e-05,2.618581675051246e-05,2.712602508836426e-05,2.8066231607226655e-05,2.9006439945078455e-05,2.994664646394085e-05,3.088685480179265e-05,3.182706132065505e-05],"_type":"histogram","values":[1,0,1,2,1,1,4,2,6,3,5,5,16,22,20,28,33,60,75,68,75,95,125,155,216,435,771,1188,1713,2615,2732,2078,1310,892,522,257,170,129,93,86,74,57,43,55,41,26,18,16,5,13,7,6,6,0,1,1,2,2,0,0,0,0,0,1]},"val/total":-5.35305847905678,"_step":3303,"gradients/temporal_edge_enc.0.bias":{"_type":"histogram","values":[1,1,0,0,0,0,0,0,0,0,0,2,0,0,0,0,0,0,0,0,0,1,0,0,1,0,0,0,0,2,1,0,0,0,0,0,2,1,7,28,2,2,4,2,1,0,1,2,1,0,0,0,0,0,0,0,0,0,1,0,0,0,0,1],"bins":[-3.2114510536193848,-3.1298539638519287,-3.0482568740844727,-2.9666597843170166,-2.8850626945495605,-2.8034656047821045,-2.7218685150146484,-2.6402714252471924,-2.5586743354797363,-2.4770772457122803,-2.395480155944824,-2.313883066177368,-2.232285976409912,-2.150688886642456,-2.069091796875,-1.987494707107544,-1.905897617340088,-1.8243005275726318,-1.7427034378051758,-1.6611063480377197,-1.5795092582702637,-1.4979121685028076,-1.4163150787353516,-1.3347179889678955,-1.2531208992004395,-1.1715238094329834,-1.0899267196655273,-1.0083296298980713,-0.9267325401306152,-0.8451354503631592,-0.7635383605957031,-0.6819412708282471,-0.6003444194793701,-0.5187473297119141,-0.437150239944458,-0.35555315017700195,-0.2739560604095459,-0.19235897064208984,-0.11076188087463379,-0.029164791107177734,0.05243229866027832,0.13402938842773438,0.21562647819519043,0.2972235679626465,0.37882065773010254,0.4604177474975586,0.5420148372650146,0.6236119270324707,0.7052090167999268,0.7868061065673828,0.8684031963348389,0.9500002861022949,1.031597375869751,1.113194465637207,1.194791555404663,1.2763886451721191,1.3579857349395752,1.4395828247070312,1.5211799144744873,1.6027770042419434,1.6843740940093994,1.7659711837768555,1.8475682735443115,1.9291653633117676,2.0107624530792236]},"gradients/edge_attn_enc.0.bias":{"bins":[-0.6620262265205383,-0.6364427208900452,-0.6108592748641968,-0.5852757692337036,-0.5596922636032104,-0.5341087579727173,-0.5085253119468689,-0.48294180631637573,-0.45735830068588257,-0.4317748248577118,-0.406191349029541,-0.38060784339904785,-0.3550243675708771,-0.3294408619403839,-0.30385738611221313,-0.27827388048171997,-0.2526904046535492,-0.22710691392421722,-0.20152342319488525,-0.17593993246555328,-0.1503564417362213,-0.12477295845746994,-0.09918947517871857,-0.0736059844493866,-0.048022493720054626,-0.022439004853367805,0.0031444840133190155,0.028727972880005836,0.05431146174669266,0.07989495247602463,0.105478435754776,0.13106192648410797,0.15664541721343994,0.1822289079427719,0.20781239867210388,0.23339588940143585,0.2589793801307678,0.2845628559589386,0.31014636158943176,0.33572983741760254,0.3613133430480957,0.3868968188762665,0.41248029470443726,0.4380638003349304,0.4636472761631012,0.48923078179359436,0.5148142576217651,0.5403977632522583,0.5659812688827515,0.5915647149085999,0.617148220539093,0.6427317261695862,0.6683151721954346,0.6938986778259277,0.7194821834564209,0.7450656890869141,0.7706491351127625,0.7962326407432556,0.8218161463737488,0.8473995923995972,0.8729830980300903,0.8985666036605835,0.9241501092910767,0.949733555316925,0.9753170609474182],"_type":"histogram","values":[1,0,0,0,0,0,0,0,0,0,0,0,0,1,0,0,0,0,2,0,2,0,1,2,6,19,9,4,4,1,2,1,1,2,1,1,1,0,1,0,0,1,0,0,0,0,0,0,0,0,0,0,0,0,0,0,0,0,0,0,0,0,0,1]},"train/dist":7.852824394435485e-05,"_timestamp":1.7755468429888632e+09,"gradients/temporal_edge_rnn.bias_hh":{"_type":"histogram","values":[1,0,0,1,1,1,0,0,1,0,0,2,3,3,1,1,5,5,10,9,14,20,51,808,35,18,6,9,4,2,4,1,0,0,1,0,0,0,1,1,0,0,0,1,0,0,0,2,0,0,0,0,0,0,0,0,0,0,1,0,0,0,0,1],"bins":[-0.36292365193367004,-0.3471789062023163,-0.3314341902732849,-0.31568944454193115,-0.2999446988105774,-0.284199982881546,-0.26845523715019226,-0.2527105212211609,-0.23696577548980713,-0.22122104465961456,-0.205476313829422,-0.18973156809806824,-0.17398683726787567,-0.1582421064376831,-0.14249736070632935,-0.12675262987613678,-0.11100789904594421,-0.09526316821575165,-0.07951842993497849,-0.06377369165420532,-0.048028960824012756,-0.03228422626852989,-0.016539491713047028,-0.0007947571575641632,0.014949977397918701,0.030694711953401566,0.04643944650888443,0.062184181064367294,0.07792891561985016,0.09367364645004272,0.10941838473081589,0.12516312301158905,0.14090782403945923,0.1566525548696518,0.17239728569984436,0.18814203143119812,0.20388676226139069,0.21963149309158325,0.235376238822937,0.2511209547519684,0.26686570048332214,0.2826104462146759,0.2983551621437073,0.31409990787506104,0.3298446536064148,0.34558936953544617,0.3613341152667999,0.3770788311958313,0.39282357692718506,0.4085683226585388,0.4243130385875702,0.44005778431892395,0.4558025002479553,0.4715472459793091,0.48729199171066284,0.5030367374420166,0.5187814235687256,0.5345261693000793,0.5502709150314331,0.5660156607627869,0.5817604064941406,0.5975051522254944,0.6132498383522034,0.6289945840835571,0.6447393298149109]},"eval/best_ade_px":37.547020241618156,"eval/ade_px":37.547020241618156,"batch/grad_norm":229.9340057373047,"epoch_time_s":37.768051624298096,"_runtime":373.15705814,"gradients/output_linear.bias":{"bins":[-49.31660079956055,-47.68879699707031,-46.06099319458008,-44.433189392089844,-42.805381774902344,-41.17757797241211,-39.549774169921875,-37.92197036743164,-36.294166564941406,-34.66636276245117,-33.03855895996094,-31.41075325012207,-29.782949447631836,-28.1551456451416,-26.527339935302734,-24.8995361328125,-23.271732330322266,-21.64392852783203,-20.016124725341797,-18.38831901550293,-16.760515213012695,-15.132711410522461,-13.50490665435791,-11.87710189819336,-10.249298095703125,-8.62149429321289,-6.99368953704834,-5.365885257720947,-3.7380809783935547,-2.110276699066162,-0.48247241973876953,1.145331859588623,2.7731399536132812,4.400944232940674,6.028748512268066,7.656552791595459,9.284357070922852,10.912160873413086,12.539965629577637,14.167770385742188,15.795574188232422,17.423377990722656,19.05118179321289,20.678987503051758,22.306791305541992,23.934595108032227,25.562400817871094,27.190204620361328,28.818008422851562,30.445812225341797,32.07361602783203,33.701419830322266,35.3292236328125,36.95703125,38.584835052490234,40.21263885498047,41.8404426574707,43.46824645996094,45.09605026245117,46.723854064941406,48.351661682128906,49.97946548461914,51.607269287109375,53.23507308959961,54.862876892089844],"_type":"histogram","values":[1,0,0,0,0,0,0,0,0,0,0,0,0,0,0,0,0,0,0,0,0,0,0,0,0,0,0,0,0,0,3,0,0,0,0,0,0,0,0,0,0,0,0,0,0,0,0,0,0,0,0,0,0,0,0,0,0,0,0,0,0,0,0,1]},"eval/bl_static_ade_px":18.562817573547363,"gradients/spatial_edge_enc.0.weight":{"bins":[-0.002287796698510647,-0.002151182387024164,-0.0020145680755376816,-0.0018779538804665208,-0.0017413395689800382,-0.0016047252574935555,-0.0014681110624223948,-0.0013314967509359121,-0.0011948824394494295,-0.001058268127962947,-0.0009216538746841252,-0.0007850396214053035,-0.0006484253099188209,-0.0005118109984323382,-0.00037519674515351653,-0.00023858246277086437,-0.0001019681803882122,3.464610199443996e-05,0.00017126038437709212,0.0003078746667597443,0.00044448894914239645,0.0005811032606288791,0.0007177175139077008,0.0008543317671865225,0.000990946078673005,0.0011275603901594877,0.0012641747016459703,0.0014007888967171311,0.0015374032082036138,0.0016740175196900964,0.0018106317147612572,0.0019472460262477398,0.0020838603377342224,0.002220474649220705,0.0023570889607071877,0.0024937032721936703,0.002630317583680153,0.002766931662335992,0.0029035459738224745,0.003040160285308957,0.0031767745967954397,0.0033133889082819223,0.003450003219768405,0.0035866175312548876,0.0037232316099107265,0.003859845921397209,0.003996460232883692,0.004133074544370174,0.004269688855856657,0.00440630316734314,0.004542917478829622,0.004679531790316105,0.0048161461018025875,0.00495276041328907,0.005089374724775553,0.005225989036262035,0.005362602882087231,0.005499217193573713,0.005635831505060196,0.0057724458165466785,0.005909060128033161,0.006045674439519644,0.006182288751006126,0.006318903062492609,0.006455517373979092],"_type":"histogram","values":[2,2,1,0,0,0,3,2,0,3,3,3,6,6,7,9,27,8,11,10,6,5,2,5,1,0,1,1,1,0,1,1,0,0,0,0,0,0,0,0,0,0,0,0,0,0,0,0,0,0,0,0,0,0,0,0,0,0,0,0,0,0,0,1]},"gradients/node_rnn.weight_hh":{"_type":"histogram","values":[1,0,1,0,1,3,1,2,3,5,4,7,4,6,10,8,7,13,7,18,16,25,31,45,39,72,94,132,226,315,601,1646,48340,10790,1456,543,308,204,136,89,73,54,38,24,27,16,14,13,7,12,5,8,10,3,5,6,1,3,0,4,1,1,0,2],"bins":[-3.9605116844177246,-3.840273141860962,-3.72003436088562,-3.5997958183288574,-3.4795572757720947,-3.359318494796753,-3.2390799522399902,-3.1188414096832275,-2.998602867126465,-2.878364086151123,-2.7581255435943604,-2.6378870010375977,-2.517648220062256,-2.397409677505493,-2.2771711349487305,-2.1569323539733887,-2.036693811416626,-1.9164551496505737,-1.796216607093811,-1.6759779453277588,-1.555739402770996,-1.4355007410049438,-1.3152620792388916,-1.195023536682129,-1.0747848749160767,-0.9545462727546692,-0.8343076705932617,-0.7140690088272095,-0.593830406665802,-0.47359180450439453,-0.3533531725406647,-0.233114555478096,-0.11287593841552734,0.007362678647041321,0.12760129570960999,0.24783991277217865,0.3680785298347473,0.4883171319961548,0.608555793762207,0.7287943959236145,0.849032998085022,0.9692716002464294,1.089510202407837,1.2097488641738892,1.3299875259399414,1.450226068496704,1.5704647302627563,1.690703272819519,1.8109419345855713,1.9311805963516235,2.051419258117676,2.1716578006744385,2.291896343231201,2.412135124206543,2.5323736667633057,2.6526122093200684,2.77285099029541,2.893089532852173,3.0133280754089355,3.1335666179656982,3.25380539894104,3.3740439414978027,3.4942824840545654,3.6145212650299072,3.73475980758667]},"gradients/node_enc.0.weight":{"_type":"histogram","values":[1,1,0,0,1,0,0,0,0,1,0,0,0,0,1,1,1,0,2,1,2,2,1,1,0,2,3,1,5,6,2,41,6,5,3,5,3,4,3,0,1,5,2,2,3,3,0,0,1,1,0,1,0,0,1,0,0,0,1,0,1,0,0,1],"bins":[-5.319731712341309,-5.152054309844971,-4.984376907348633,-4.816699981689453,-4.649022579193115,-4.481345176696777,-4.313668251037598,-4.14599084854126,-3.978313446044922,-3.810636043548584,-3.642958879470825,-3.4752817153930664,-3.3076043128967285,-3.1399269104003906,-2.972249746322632,-2.804572582244873,-2.636895179748535,-2.4692177772521973,-2.3015406131744385,-2.1338634490966797,-1.9661860466003418,-1.7985087633132935,-1.6308314800262451,-1.4631541967391968,-1.2954769134521484,-1.1277996301651,-0.9601223468780518,-0.7924450635910034,-0.6247677803039551,-0.45709049701690674,-0.2894132137298584,-0.12173593044281006,0.04594135284423828,0.21361863613128662,0.38129591941833496,0.5489732027053833,0.7166504859924316,0.88432776927948,1.0520050525665283,1.2196823358535767,1.387359619140625,1.5550369024276733,1.7227141857147217,1.89039146900177,2.0580687522888184,2.2257461547851562,2.393423318862915,2.561100482940674,2.7287778854370117,2.8964552879333496,3.0641324520111084,3.231809616088867,3.399487018585205,3.567164421081543,3.7348415851593018,3.9025187492370605,4.070196151733398,4.237873554229736,4.405550956726074,4.573227882385254,4.740905284881592,4.90858268737793,5.076259613037109,5.243937015533447,5.411614418029785]},"gradients/node_rnn.bias_ih":{"values":[1,0,0,0,1,0,0,0,0,1,0,0,0,0,0,1,0,0,0,1,2,1,0,2,0,2,3,4,4,3,6,19,18,238,113,40,13,9,3,8,5,2,1,2,1,3,1,0,0,0,2,0,0,0,1,0,0,0,0,0,0,0,0,1],"bins":[-4.913750171661377,-4.768916130065918,-4.624082088470459,-4.479248046875,-4.334413528442383,-4.189579486846924,-4.044745445251465,-3.899911403656006,-3.755077362060547,-3.610243082046509,-3.46540904045105,-3.320574998855591,-3.1757407188415527,-3.0309066772460938,-2.8860726356506348,-2.7412383556365967,-2.5964043140411377,-2.4515702724456787,-2.3067359924316406,-2.1619019508361816,-2.0170679092407227,-1.8722337484359741,-1.7273995876312256,-1.5825655460357666,-1.437731385231018,-1.2928972244262695,-1.1480631828308105,-1.003229022026062,-0.8583949208259583,-0.7135608196258545,-0.568726658821106,-0.4238925576210022,-0.27905845642089844,-0.13422434031963348,0.01060977578163147,0.15544389188289642,0.3002780079841614,0.44511210918426514,0.5899462699890137,0.7347803711891174,0.8796144723892212,1.0244486331939697,1.1692826747894287,1.3141168355941772,1.4589509963989258,1.6037850379943848,1.7486191987991333,1.8934532403945923,2.038287401199341,2.1831214427948,2.327955722808838,2.472789764404297,2.617623805999756,2.762458086013794,2.907292127609253,3.052126169204712,3.19696044921875,3.341794490814209,3.486628532409668,3.631462574005127,3.776296854019165,3.921130895614624,4.065965175628662,4.210799217224121,4.35563325881958],"_type":"histogram"},"train/w_mean":0.7891610108466245,"_wandb":{"runtime":373},"gradients/attn_k.weight":{"bins":[-5.550697824219242e-05,-5.362048977985978e-05,-5.1734001317527145e-05,-4.9847516493173316e-05,-4.796102803084068e-05,-4.6074539568508044e-05,-4.418805110617541e-05,-4.230156628182158e-05,-4.041507781948894e-05,-3.8528589357156307e-05,-3.664210089482367e-05,-3.4755612432491034e-05,-3.2869127608137205e-05,-3.098263914580457e-05,-2.9096150683471933e-05,-2.72096640401287e-05,-2.5323175577796064e-05,-2.3436687115463428e-05,-2.1550200472120196e-05,-1.966371200978756e-05,-1.7777225366444327e-05,-1.589073690411169e-05,-1.4004249351273756e-05,-1.2117761798435822e-05,-1.0231274245597888e-05,-8.344786692759953e-06,-6.458299139922019e-06,-4.571811132336734e-06,-2.6853235794987995e-06,-7.988359129740275e-07,1.0876517535507446e-06,2.9741395337623544e-06,4.860627086600289e-06,6.747114639438223e-06,8.633602192276157e-06,1.0520089745114092e-05,1.2406577297952026e-05,1.4293065760284662e-05,1.6179552403627895e-05,1.806604086596053e-05,1.9952527509303764e-05,2.18390159716364e-05,2.3725504433969036e-05,2.561199107731227e-05,2.7498479539644904e-05,2.9384966182988137e-05,3.127145464532077e-05,3.315794310765341e-05,3.5044431569986045e-05,3.6930916394339874e-05,3.881740485667251e-05,4.070389331900515e-05,4.259038178133778e-05,4.447686660569161e-05,4.636335506802425e-05,4.8249843530356884e-05,5.013633199268952e-05,5.2022820455022156e-05,5.3909305279375985e-05,5.579579374170862e-05,5.768228220404126e-05,5.9568770666373894e-05,6.145525549072772e-05,6.334174395306036e-05,6.5228232415393e-05],"_type":"histogram","values":[1,1,3,0,1,0,1,4,3,10,8,9,9,15,11,14,25,35,55,71,96,119,215,334,503,755,1077,1564,2330,2470,2136,1390,1017,624,505,337,168,118,87,80,45,19,20,21,19,15,14,6,8,5,3,1,3,1,1,1,0,0,0,0,0,0,0,1]},"batch/nll":-6.403262138366699,"val/dist":7.008527508333571e-05,"train/nll":-6.254949389342272,"gradients/edge_attn_enc.0.weight":{"_type":"histogram","values":[2,0,0,0,3,1,1,1,2,4,3,7,2,7,6,16,26,58,101,258,941,25583,4756,602,186,75,37,27,22,12,4,2,5,2,3,5,3,1,0,0,0,0,0,0,0,0,0,1,1,0,0,0,0,0,0,0,0,0,0,1,0,0,0,1],"bins":[-0.04370233789086342,-0.04170197993516922,-0.03970162197947502,-0.03770126402378082,-0.035700906068086624,-0.033700548112392426,-0.03170019015669823,-0.02969983033835888,-0.02769947238266468,-0.025699114426970482,-0.023698756471276283,-0.021698398515582085,-0.019698038697242737,-0.017697680741548538,-0.01569732278585434,-0.013696964830160141,-0.011696606874465942,-0.009696248918771744,-0.007695890497416258,-0.005695532076060772,-0.0036951741203665733,-0.001694815931841731,0.0003055422566831112,0.0023059004452079535,0.004306258633732796,0.006306616589426994,0.008306974545121193,0.010307333432137966,0.012307691387832165,0.014308049343526363,0.016308408230543137,0.018308766186237335,0.020309127867221832,0.02230948582291603,0.02430984377861023,0.026310201734304428,0.028310559689998627,0.030310919508337975,0.032311275601387024,0.03431163355708122,0.03631199151277542,0.03831235319375992,0.04031271114945412,0.042313069105148315,0.044313427060842514,0.04631378501653671,0.04831414297223091,0.05031450092792511,0.05231485888361931,0.05431521683931351,0.056315574795007706,0.058315932750701904,0.0603162907063961,0.0623166486620903,0.0643170103430748,0.0663173645734787,0.0683177262544632,0.0703180804848671,0.07231844216585159,0.0743187963962555,0.07631915807723999,0.07831951230764389,0.08031987398862839,0.08232022821903229,0.08432058990001678]},"batch/loss":-5.022853851318359,"eval/improvement_vs_static_pct":-102.27004921453258,"gradients/spatial_edge_rnn.weight_ih":{"values":[6,13,19,20,15,20,46,89,113,175,274,592,1400,59617,1515,665,347,223,118,70,40,29,23,18,22,12,16,8,10,1,2,0,0,0,0,0,1,0,0,1,2,0,0,0,1,0,0,0,0,0,1,0,1,1,0,2,0,2,2,0,1,1,0,2],"bins":[-0.015042313374578953,-0.013930964283645153,-0.012819614261388779,-0.011708265170454979,-0.01059691607952118,-0.00948556698858738,-0.00837421789765358,-0.007262867875397205,-0.006151518784463406,-0.005040169693529606,-0.003928820136934519,-0.0028174708131700754,-0.001706121489405632,-0.0005947721656411886,0.0005165771581232548,0.0016279264818876982,0.0027392758056521416,0.003850625129416585,0.004961974453181028,0.006073324009776115,0.007184673100709915,0.008296022191643715,0.009407371282577515,0.010518721304833889,0.011630070395767689,0.012741419486701488,0.013852769508957863,0.014964118599891663,0.016075467690825462,0.017186816781759262,0.018298165872693062,0.01940951496362686,0.02052086591720581,0.02163221500813961,0.02274356409907341,0.02385491319000721,0.02496626228094101,0.02607761323451996,0.027188962325453758,0.028300311416387558,0.029411660507321358,0.030523009598255157,0.031634360551834106,0.03274570778012276,0.033857058733701706,0.034968405961990356,0.036079756915569305,0.037191104143857956,0.038302455097436905,0.039413806051015854,0.040525153279304504,0.04163650423288345,0.042747851461172104,0.04385920241475105,0.0449705496430397,0.04608190059661865,0.0471932515501976,0.04830459877848625,0.0494159497320652,0.05052729696035385,0.0516386479139328,0.05274999514222145,0.0538613460958004,0.05497269332408905,0.056084044277668],"_type":"histogram"},"gradients/spatial_edge_enc.0.bias":{"bins":[-0.013295644894242287,-0.012993669137358665,-0.012691693380475044,-0.012389717623591423,-0.012087740935385227,-0.011785765178501606,-0.011483789421617985,-0.011181813664734364,-0.010879837907850742,-0.010577862150967121,-0.010275885462760925,-0.009973909705877304,-0.009671933948993683,-0.009369958192110062,-0.00906798243522644,-0.00876600667834282,-0.008464030921459198,-0.008162054233253002,-0.007860078476369381,-0.00755810271948576,-0.0072561269626021385,-0.00695415074005723,-0.006652174983173609,-0.0063501992262899876,-0.006048223003745079,-0.005746247246861458,-0.005444271489977837,-0.005142295733094215,-0.004840319510549307,-0.004538343753665686,-0.0042363679967820644,-0.003934391774237156,-0.0036324160173535347,-0.00333044002763927,-0.0030284642707556486,-0.0027264882810413837,-0.0024245125241577625,-0.0021225365344434977,-0.0018205605447292328,-0.0015185846714302897,-0.0012166087981313467,-0.0009146329248324037,-0.0006126569933257997,-0.0003106810909230262,-8.705188520252705e-06,0.0002932707138825208,0.0005952466162852943,0.0008972225477918983,0.0011991984210908413,0.0015011742943897843,0.0018031501676887274,0.0021051261574029922,0.0024071019142866135,0.0027090779040008783,0.003011053893715143,0.0033130296505987644,0.0036150056403130293,0.003916981630027294,0.004218957386910915,0.004520933143794537,0.004822909366339445,0.005124885123223066,0.0054268608801066875,0.005728837102651596,0.006030812859535217],"_type":"histogram","values":[1,0,0,0,0,0,0,0,0,0,0,0,0,0,1,1,0,1,0,0,0,1,1,0,1,1,1,0,0,1,0,1,0,0,0,2,2,1,0,2,2,4,3,3,9,3,3,4,1,2,3,1,1,1,2,0,0,0,0,0,0,2,1,1]},"eval/fde_px":73.64391088485718,"eval/bl_linear_ade_px":24.873679876327515,"gradients/temporal_edge_enc.0.weight":{"_type":"histogram","values":[1,0,0,0,0,0,0,0,0,0,0,0,0,0,0,1,0,0,0,0,0,0,0,0,0,0,0,0,0,1,0,0,1,0,0,0,0,1,0,0,1,0,2,0,0,1,0,1,1,2,3,2,9,8,64,7,5,3,6,0,5,1,1,1],"bins":[-0.005632909946143627,-0.0055291419848799706,-0.005425374023616314,-0.005321606062352657,-0.005217838101089001,-0.005114070605486631,-0.005010302644222975,-0.004906534682959318,-0.0048027667216956615,-0.004698998760432005,-0.004595230799168348,-0.004491462837904692,-0.004387695342302322,-0.004283927381038666,-0.004180159419775009,-0.0040763914585113525,-0.003972623497247696,-0.0038688555359840393,-0.0037650875747203827,-0.0036613198462873697,-0.003557551885023713,-0.0034537839237600565,-0.0033500161953270435,-0.003246248234063387,-0.0031424802727997303,-0.0030387123115360737,-0.002934944350272417,-0.002831176621839404,-0.0027274086605757475,-0.002623640699312091,-0.002519872970879078,-0.0024161050096154213,-0.0023123372811824083,-0.0022085693199187517,-0.0021048015914857388,-0.002001033630222082,-0.0018972656689584255,-0.001793497707694769,-0.0016897298628464341,-0.0015859620179980993,-0.0014821940567344427,-0.001378426095470786,-0.0012746582506224513,-0.0011708904057741165,-0.00106712244451046,-0.0009633545414544642,-0.0008595866383984685,-0.0007558187353424728,-0.0006520508322864771,-0.0005482829292304814,-0.0004445150261744857,-0.00034074712311849,-0.00023697922006249428,-0.00013321131700649858,-2.9443413950502872e-05,7.432448910549283e-05,0.00017809239216148853,0.00028186029521748424,0.00038562819827347994,0.0004893961013294756,0.0005931640043854713,0.000696931907441467,0.0008006998104974627,0.0009044677135534585,0.0010082356166094542]},"gradients/temporal_edge_rnn.bias_ih":{"bins":[-0.36292365193367004,-0.3471789062023163,-0.3314341902732849,-0.31568944454193115,-0.2999446988105774,-0.284199982881546,-0.26845523715019226,-0.2527105212211609,-0.23696577548980713,-0.22122104465961456,-0.205476313829422,-0.18973156809806824,-0.17398683726787567,-0.1582421064376831,-0.14249736070632935,-0.12675262987613678,-0.11100789904594421,-0.09526316821575165,-0.07951842993497849,-0.06377369165420532,-0.048028960824012756,-0.03228422626852989,-0.016539491713047028,-0.0007947571575641632,0.014949977397918701,0.030694711953401566,0.04643944650888443,0.062184181064367294,0.07792891561985016,0.09367364645004272,0.10941838473081589,0.12516312301158905,0.14090782403945923,0.1566525548696518,0.17239728569984436,0.18814203143119812,0.20388676226139069,0.21963149309158325,0.235376238822937,0.2511209547519684,0.26686570048332214,0.2826104462146759,0.2983551621437073,0.31409990787506104,0.3298446536064148,0.34558936953544617,0.3613341152667999,0.3770788311958313,0.39282357692718506,0.4085683226585388,0.4243130385875702,0.44005778431892395,0.4558025002479553,0.4715472459793091,0.48729199171066284,0.5030367374420166,0.5187814235687256,0.5345261693000793,0.5502709150314331,0.5660156607627869,0.5817604064941406,0.5975051522254944,0.6132498383522034,0.6289945840835571,0.6447393298149109],"_type":"histogram","values":[1,0,0,1,1,1,0,0,1,0,0,2,3,3,1,1,5,5,10,9,14,20,51,808,35,18,6,9,4,2,4,1,0,0,1,0,0,0,1,1,0,0,0,1,0,0,0,2,0,0,0,0,0,0,0,0,0,0,1,0,0,0,0,1]},"gradients/node_rnn.weight_ih":{"_type":"histogram","values":[1,0,0,0,3,0,0,0,2,2,1,2,4,0,5,1,2,7,2,6,8,10,10,13,15,19,28,41,54,80,118,217,507,2770,59763,991,337,161,107,74,43,29,30,15,18,5,9,6,5,1,3,2,0,4,2,0,0,0,0,2,0,0,0,1],"bins":[-4.926210880279541,-4.782071113586426,-4.6379313468933105,-4.493791103363037,-4.349651336669922,-4.205511569976807,-4.061371803283691,-3.917231798171997,-3.773092031478882,-3.6289522647857666,-3.4848122596740723,-3.340672492980957,-3.196532726287842,-3.0523927211761475,-2.9082529544830322,-2.764112949371338,-2.6199731826782227,-2.4758334159851074,-2.331693410873413,-2.187553644180298,-2.0434136390686035,-1.8992738723754883,-1.755134105682373,-1.6109942197799683,-1.4668543338775635,-1.3227144479751587,-1.178574562072754,-1.0344347953796387,-0.8902949094772339,-0.7461550235748291,-0.6020151972770691,-0.4578753411769867,-0.3137359619140625,-0.1695961058139801,-0.025456249713897705,0.11868360638618469,0.2628234624862671,0.4069633185863495,0.5511031746864319,0.6952430009841919,0.8393828868865967,0.9835227727890015,1.1276626586914062,1.2718024253845215,1.4159423112869263,1.560082197189331,1.7042219638824463,1.848361849784851,1.9925017356872559,2.136641502380371,2.2807815074920654,2.4249212741851807,2.569061279296875,2.7132010459899902,2.8573408126831055,3.0014808177948,3.145620584487915,3.2897603511810303,3.4339003562927246,3.57804012298584,3.722179889678955,3.8663198947906494,4.010459899902344,4.154599666595459,4.298739433288574]},"gradients/spatial_edge_rnn.bias_hh":{"values":[2,1,2,1,1,1,6,6,11,6,15,27,32,800,27,26,15,14,10,7,2,1,2,1,2,1,1,1,1,0,1,0,0,0,0,0,0,0,0,0,0,0,0,0,0,0,0,0,0,0,0,0,0,0,0,0,0,0,0,0,0,0,0,1],"bins":[-0.021766502410173416,-0.02015763707458973,-0.018548771739006042,-0.016939904540777206,-0.01533103920519352,-0.013722173869609833,-0.012113307602703571,-0.01050444133579731,-0.008895576000213623,-0.007286710198968649,-0.005677844397723675,-0.004068978596478701,-0.0024601127952337265,-0.0008512469939887524,0.0007576188072562218,0.002366484608501196,0.00397535040974617,0.005584216210991144,0.007193082012236118,0.00880194827914238,0.010410813614726067,0.012019678950309753,0.013628545217216015,0.015237411484122276,0.016846276819705963,0.01845514215528965,0.020064007490873337,0.021672874689102173,0.02328174002468586,0.024890605360269547,0.026499472558498383,0.02810833789408207,0.029717199504375458,0.031326066702604294,0.03293493017554283,0.03454379737377167,0.036152660846710205,0.03776152804493904,0.03937039524316788,0.040979258716106415,0.04258812591433525,0.04419699311256409,0.045805856585502625,0.04741472378373146,0.0490235909819603,0.050632454454898834,0.05224132165312767,0.05385018512606621,0.055459052324295044,0.05706791952252388,0.05867678299546242,0.060285650193691254,0.06189451366662979,0.06350338459014893,0.06511224806308746,0.066721111536026,0.06832997500896454,0.06993884593248367,0.07154770940542221,0.07315657287836075,0.07476544380187988,0.07637430727481842,0.07798317074775696,0.07959204167127609,0.08120090514421463],"_type":"histogram"},"train/total":-4.859033227653943,"gradients/node_rnn.bias_hh":{"bins":[-4.913750171661377,-4.768916130065918,-4.624082088470459,-4.479248046875,-4.334413528442383,-4.189579486846924,-4.044745445251465,-3.899911403656006,-3.755077362060547,-3.610243082046509,-3.46540904045105,-3.320574998855591,-3.1757407188415527,-3.0309066772460938,-2.8860726356506348,-2.7412383556365967,-2.5964043140411377,-2.4515702724456787,-2.3067359924316406,-2.1619019508361816,-2.0170679092407227,-1.8722337484359741,-1.7273995876312256,-1.5825655460357666,-1.437731385231018,-1.2928972244262695,-1.1480631828308105,-1.003229022026062,-0.8583949208259583,-0.7135608196258545,-0.568726658821106,-0.4238925576210022,-0.27905845642089844,-0.13422434031963348,0.01060977578163147,0.15544389188289642,0.3002780079841614,0.44511210918426514,0.5899462699890137,0.7347803711891174,0.8796144723892212,1.0244486331939697,1.1692826747894287,1.3141168355941772,1.4589509963989258,1.6037850379943848,1.7486191987991333,1.8934532403945923,2.038287401199341,2.1831214427948,2.327955722808838,2.472789764404297,2.617623805999756,2.762458086013794,2.907292127609253,3.052126169204712,3.19696044921875,3.341794490814209,3.486628532409668,3.631462574005127,3.776296854019165,3.921130895614624,4.065965175628662,4.210799217224121,4.35563325881958],"_type":"histogram","values":[1,0,0,0,1,0,0,0,0,1,0,0,0,0,0,1,0,0,0,1,2,1,0,2,0,2,3,4,4,3,6,19,18,238,113,40,13,9,3,8,5,2,1,2,1,3,1,0,0,0,2,0,0,0,1,0,0,0,0,0,0,0,0,1]},"gradients/attn_k.bias":{"_type":"histogram","values":[1,0,0,0,0,0,1,0,0,1,0,1,0,0,2,1,1,2,0,2,3,3,6,1,0,1,3,2,3,1,0,0,1,0,1,2,2,1,2,4,0,3,1,1,1,2,0,1,0,1,0,0,1,0,0,1,1,1,0,0,0,1,0,1],"bins":[-2.525801789943216e-11,-2.4476726201427823e-11,-2.3695434503423485e-11,-2.2914142805419146e-11,-2.2132851107414808e-11,-2.135155940941047e-11,-2.0570267711406132e-11,-1.9788976013401793e-11,-1.9007684315397455e-11,-1.8226392617393117e-11,-1.744510091938878e-11,-1.666380922138444e-11,-1.5882517523380102e-11,-1.5101225825375764e-11,-1.4319934127371425e-11,-1.3538642429367087e-11,-1.2757350731362749e-11,-1.197605903335841e-11,-1.1194767335354072e-11,-1.0413475637349734e-11,-9.632183939345396e-12,-8.850892241341057e-12,-8.069600543336719e-12,-7.28830884533238e-12,-6.5070171473280425e-12,-5.725725449323704e-12,-4.944433751319366e-12,-4.163142053315028e-12,-3.3818503553106893e-12,-2.600558657306351e-12,-1.8192669593020128e-12,-1.0379752612976745e-12,-2.566835632933362e-13,5.246081347110021e-13,1.3058998327153404e-12,2.0871915307196787e-12,2.868483228724017e-12,3.649774926728355e-12,4.4310666247326935e-12,5.212358322737032e-12,5.99365002074137e-12,6.774941718745708e-12,7.556233416750047e-12,8.337525114754385e-12,9.118816812758723e-12,9.900108510763062e-12,1.06814002087674e-11,1.1462691906771738e-11,1.2243983604776076e-11,1.3025275302780415e-11,1.3806567000784753e-11,1.458785869878909e-11,1.536915039679343e-11,1.6150442094797768e-11,1.6931733792802106e-11,1.7713025490806444e-11,1.8494317188810783e-11,1.927560888681512e-11,2.005690058481946e-11,2.0838192282823798e-11,2.1619483980828136e-11,2.2400775678832474e-11,2.3182067376836812e-11,2.396335907484115e-11,2.474465077284549e-11]},"batch/dist":6.624502566410229e-05,"lr":0.000980345374410087,"gradients/output_linear.weight":{"bins":[-41.731327056884766,-40.38828659057617,-39.045249938964844,-37.70220947265625,-36.35917282104492,-35.01613235473633,-33.673095703125,-32.330055236816406,-30.987016677856445,-29.643978118896484,-28.300939559936523,-26.957901000976562,-25.61486053466797,-24.271821975708008,-22.928783416748047,-21.585744857788086,-20.242706298828125,-18.899667739868164,-17.556629180908203,-16.213590621948242,-14.870551109313965,-13.527512550354004,-12.184473037719727,-10.841434478759766,-9.498395919799805,-8.155357360839844,-6.812318325042725,-5.4692792892456055,-4.1262407302856445,-2.7832019329071045,-1.4401631355285645,-0.09712433815002441,1.2459182739257812,2.5889570713043213,3.9319958686828613,5.2750349044799805,6.618073463439941,7.961112022399902,9.30415153503418,10.64719009399414,11.990228652954102,13.333267211914062,14.676305770874023,16.019344329833984,17.362384796142578,18.70542335510254,20.0484619140625,21.39150047302246,22.734539031982422,24.077577590942383,25.420616149902344,26.763654708862305,28.106693267822266,29.44973373413086,30.79277229309082,32.13581085205078,33.478851318359375,34.8218879699707,36.1649284362793,37.507965087890625,38.85100555419922,40.19404220581055,41.53708267211914,42.88011932373047,44.22315979003906],"_type":"histogram","values":[2,1,0,2,1,1,2,1,4,2,6,3,4,2,2,3,1,2,3,0,0,0,5,3,3,6,5,7,8,15,52,396,17,11,8,4,7,4,2,2,0,1,1,2,3,0,4,2,2,3,3,3,4,3,1,4,1,0,2,2,0,1,0,1]},"batch/w_mean":0.7926338911056519,"gradients/temporal_edge_rnn.weight_hh":{"bins":[-0.026542730629444122,-0.025423221290111542,-0.024303710088133812,-0.02318420074880123,-0.0220646895468235,-0.02094518020749092,-0.01982567086815834,-0.01870615966618061,-0.01758665032684803,-0.01646714098751545,-0.01534762978553772,-0.01422812044620514,-0.013108610175549984,-0.011989099904894829,-0.010869590565562248,-0.009750080294907093,-0.008630570024251938,-0.007511059753596783,-0.006391549948602915,-0.005272040143609047,-0.004152529872953892,-0.0030330198351293802,-0.0019135097973048687,-0.0007939997594803572,0.00032551027834415436,0.0014450203161686659,0.0025645303539931774,0.003684040391817689,0.0048035504296422005,0.005923060700297356,0.0070425705052912235,0.008162080310285091,0.009281590580940247,0.010401100851595402,0.011520611122250557,0.012640120461583138,0.013759630732238293,0.014879141002893448,0.01599865034222603,0.017118161544203758,0.01823767088353634,0.01935718022286892,0.02047669142484665,0.02159620076417923,0.02271571010351181,0.02383522130548954,0.02495473064482212,0.02607424184679985,0.02719375118613243,0.02831326052546501,0.02943277172744274,0.030552281066775322,0.03167179226875305,0.03279130160808563,0.03391081094741821,0.03503032028675079,0.036149829626083374,0.03726934269070625,0.038388852030038834,0.039508361369371414,0.040627870708703995,0.041747380048036575,0.042866893112659454,0.043986402451992035,0.045105911791324615],"_type":"histogram","values":[1,0,1,2,0,1,0,4,1,1,1,1,8,6,14,14,22,31,41,98,156,416,1781,252887,5445,715,226,105,62,34,21,17,7,5,5,1,2,1,2,0,2,0,0,0,1,0,1,0,0,3,0,0,0,0,0,0,0,0,0,1,0,0,0,1]},"gradients/spatial_edge_rnn.bias_ih":{"_type":"histogram","values":[2,1,2,1,1,1,6,6,11,6,15,27,32,800,27,26,15,14,10,7,2,1,2,1,2,1,1,1,1,0,1,0,0,0,0,0,0,0,0,0,0,0,0,0,0,0,0,0,0,0,0,0,0,0,0,0,0,0,0,0,0,0,0,1],"bins":[-0.021766502410173416,-0.02015763707458973,-0.018548771739006042,-0.016939904540777206,-0.01533103920519352,-0.013722173869609833,-0.012113307602703571,-0.01050444133579731,-0.008895576000213623,-0.007286710198968649,-0.005677844397723675,-0.004068978596478701,-0.0024601127952337265,-0.0008512469939887524,0.0007576188072562218,0.002366484608501196,0.00397535040974617,0.005584216210991144,0.007193082012236118,0.00880194827914238,0.010410813614726067,0.012019678950309753,0.013628545217216015,0.015237411484122276,0.016846276819705963,0.01845514215528965,0.020064007490873337,0.021672874689102173,0.02328174002468586,0.024890605360269547,0.026499472558498383,0.02810833789408207,0.029717199504375458,0.031326066702604294,0.03293493017554283,0.03454379737377167,0.036152660846710205,0.03776152804493904,0.03937039524316788,0.040979258716106415,0.04258812591433525,0.04419699311256409,0.045805856585502625,0.04741472378373146,0.0490235909819603,0.050632454454898834,0.05224132165312767,0.05385018512606621,0.055459052324295044,0.05706791952252388,0.05867678299546242,0.060285650193691254,0.06189451366662979,0.06350338459014893,0.06511224806308746,0.066721111536026,0.06832997500896454,0.06993884593248367,0.07154770940542221,0.07315657287836075,0.07476544380187988,0.07637430727481842,0.07798317074775696,0.07959204167127609,0.08120090514421463]},"gradients/temporal_edge_rnn.weight_ih":{"_type":"histogram","values":[3,2,2,4,5,7,6,4,6,5,2,7,24,33,31,22,46,77,106,178,276,614,3569,59125,653,286,109,104,38,36,29,14,9,7,9,8,6,9,5,7,2,4,6,6,4,5,4,4,0,0,1,0,1,0,2,2,1,2,2,2,1,1,0,3],"bins":[-0.228352889418602,-0.21843169629573822,-0.20851051807403564,-0.19858932495117188,-0.1886681318283081,-0.17874693870544434,-0.16882574558258057,-0.158904567360878,-0.14898337423801422,-0.13906218111515045,-0.12914100289344788,-0.1192198097705841,-0.10929861664772034,-0.09937742352485657,-0.0894562378525734,-0.07953505218029022,-0.06961385905742645,-0.05969266965985298,-0.04977148026227951,-0.03985029086470604,-0.02992910146713257,-0.020007912069559097,-0.010086722671985626,-0.00016553327441215515,0.009755656123161316,0.019676845520734787,0.029598034918308258,0.03951922431588173,0.0494404137134552,0.05936160311102867,0.06928279250860214,0.07920397818088531,0.08912518620491028,0.09904637932777405,0.10896756500005722,0.1188887506723404,0.12880994379520416,0.13873113691806793,0.1486523151397705,0.15857350826263428,0.16849470138549805,0.17841589450836182,0.18833708763122559,0.19825826585292816,0.20817945897579193,0.2181006520986557,0.22802183032035828,0.23794302344322205,0.24786421656608582,0.2577854096889496,0.26770660281181335,0.2776277959346771,0.2875489592552185,0.2974701523780823,0.30739134550094604,0.3173125386238098,0.3272337317466736,0.33715492486953735,0.3470761179924011,0.3569973111152649,0.36691850423812866,0.37683966755867004,0.3867608606815338,0.3966820538043976,0.40660324692726135]},"gradients/node_enc.0.bias":{"values":[1,0,0,0,0,1,0,0,0,0,0,1,0,0,1,1,0,0,0,1,0,0,0,1,0,0,1,1,2,1,2,0,1,2,20,1,2,2,2,2,0,3,2,1,3,0,2,1,0,0,0,1,0,1,1,0,1,0,0,0,1,0,0,1],"bins":[-11.552375793457031,-11.220948219299316,-10.889520645141602,-10.558093070983887,-10.226665496826172,-9.895237922668457,-9.563810348510742,-9.232382774353027,-8.900955200195312,-8.569527626037598,-8.238100051879883,-7.906672477722168,-7.575244903564453,-7.243817329406738,-6.912389755249023,-6.580962181091309,-6.249534606933594,-5.918107032775879,-5.586679458618164,-5.255251884460449,-4.923824310302734,-4.5923967361450195,-4.260969161987305,-3.92954158782959,-3.598114013671875,-3.26668643951416,-2.9352588653564453,-2.6038312911987305,-2.2724037170410156,-1.9409761428833008,-1.609548568725586,-1.278120994567871,-0.9466924667358398,-0.615264892578125,-0.28383731842041016,0.04759025573730469,0.37901782989501953,0.7104454040527344,1.0418729782104492,1.373300552368164,1.704728126525879,2.0361557006835938,2.3675832748413086,2.6990108489990234,3.0304384231567383,3.361865997314453,3.693293571472168,4.024721145629883,4.356148719787598,4.6875762939453125,5.019003868103027,5.350431442260742,5.681859016418457,6.013286590576172,6.344714164733887,6.676141738891602,7.007569313049316,7.338996887207031,7.670424461364746,8.001852035522461,8.333279609680176,8.66470718383789,8.996134757995605,9.32756233215332,9.658989906311035],"_type":"histogram"},"gradients/attn_q.bias":{"values":[1,0,0,0,0,1,0,0,0,1,2,2,0,3,8,3,5,3,3,1,1,1,0,0,0,0,1,0,0,0,0,0,0,0,0,0,0,0,0,0,0,0,0,1,0,0,1,0,0,0,3,2,2,0,1,5,7,1,2,0,2,0,0,1],"bins":[-0.0005281085614115,-0.0005129158380441368,-0.0004977230564691126,-0.0004825303331017494,-0.00046733758063055575,-0.0004521448281593621,-0.00043695210479199886,-0.0004217593523208052,-0.0004065665998496115,-0.00039137384737841785,-0.0003761810949072242,-0.00036098837153986096,-0.0003457956190686673,-0.0003306028665974736,-0.0003154101432301104,-0.00030021739075891674,-0.00028502463828772306,-0.0002698318858165294,-0.0002546391333453357,-0.0002394464099779725,-0.00022425365750677884,-0.00020906090503558517,-0.00019386816711630672,-0.00017867542919702828,-0.0001634826767258346,-0.00014828992425464094,-0.0001330971863353625,-0.00011790444114012644,-0.00010271169594489038,-8.751895074965432e-05,-7.232620555441827e-05,-5.713346035918221e-05,-4.194074426777661e-05,-2.674799907254055e-05,-1.1555253877304494e-05,3.6374913179315627e-06,1.883023651316762e-05,3.402298170840368e-05,4.9215726903639734e-05,6.440847209887579e-05,7.960121729411185e-05,9.47939624893479e-05,0.00010998670768458396,0.0001251794456038624,0.00014037219807505608,0.00015556495054624975,0.0001707576884655282,0.00018595042638480663,0.0002011431788560003,0.00021633593132719398,0.00023152866924647242,0.00024672140716575086,0.00026191415963694453,0.0002771069121081382,0.0002922996645793319,0.0003074923879466951,0.00032268514041788876,0.00033787789288908243,0.00035307061625644565,0.0003682633687276393,0.000383456121198833,0.00039864887367002666,0.00041384162614122033,0.00042903434950858355,0.0004442271019797772],"_type":"histogram"},"val/nll":-6.815244269833815,"epoch":8,"gradients/spatial_edge_rnn.weight_hh":{"bins":[-0.001489977352321148,-0.0014040479436516762,-0.0013181184185668826,-0.0012321890098974109,-0.0011462594848126173,-0.0010603300761431456,-0.0009744006674736738,-0.0008884712005965412,-0.0008025417337194085,-0.0007166122668422759,-0.0006306827999651432,-0.0005447533912956715,-0.0004588239244185388,-0.00037289445754140615,-0.00028696501976810396,-0.00020103556744288653,-0.0001151061151176691,-2.917666279245168e-05,5.6752789532765746e-05,0.00014268224185798317,0.0002286116941832006,0.00031454116106033325,0.00040047059883363545,0.00048640003660693765,0.0005723295034840703,0.000658258970361203,0.0007441884372383356,0.0008301178459078074,0.00091604731278494,0.0010019767796620727,0.0010879061883315444,0.001173835713416338,0.0012597651220858097,0.0013456945307552814,0.001431624055840075,0.0015175534645095468,0.0016034829895943403,0.001689412398263812,0.0017753418069332838,0.0018612713320180774,0.0019472007406875491,0.0020331302657723427,0.0021190596744418144,0.002204989083111286,0.002290918491780758,0.0023768479004502296,0.002462777541950345,0.0025487069506198168,0.0026346363592892885,0.0027205657679587603,0.002806495176628232,0.0028924248181283474,0.002978354226797819,0.003064283635467291,0.0031502130441367626,0.0032361424528062344,0.003322071861475706,0.0034080015029758215,0.0034939309116452932,0.003579860320314765,0.0036657897289842367,0.0037517191376537085,0.003837648779153824,0.003923578187823296,0.004009507596492767],"_type":"histogram","values":[3,0,1,1,6,6,5,5,6,13,20,29,42,90,250,1008,8560,247400,3726,568,196,82,31,19,13,9,13,11,9,8,3,3,3,1,1,0,0,1,0,0,0,0,0,0,0,1,0,0,0,0,0,0,0,0,0,0,0,0,0,0,0,0,0,1]}}